{
  "normalization": {
    "mean": [
      [
        45.83333206176758,
        35.353328704833984,
        29.799999237060547,
        60.93333435058594,
        27.16666603088379,
        0.8999999761581421,
        0.3333333432674408,
        0.3333333432674408,
        0.3333333432674408
      ]
    ],
    "variance": [
      [
        470.3388977050781,
        212.4778289794922,
        190.0266571044922,
        54.662227630615234,
        2.472222328186035,
        0.2900000214576721,
        0.222222238779068,
        0.2222221940755844,
        0.2222221940755844
      ]
    ]
  },
  "dense": {
    "weights": [
      [
        -0.22384783625602722,
        0.028483465313911438,
        -0.15149112045764923,
        -0.14544902741909027,
        -0.17543956637382507,
        0.30981534719467163,
        -0.01060989499092102,
        0.02730795368552208,
        0.020741164684295654,
        -0.022658055648207664,
        0.1591380536556244,
        0.10546494275331497,
        -0.11008282750844955,
        -0.12739281356334686,
        -0.39192402362823486,
        0.2715626060962677,
        -0.2739037275314331,
        -0.13806934654712677,
        0.15480491518974304,
        0.0388886034488678,
        0.04297627508640289,
        -0.31926247477531433,
        -0.23360739648342133,
        0.3302534818649292,
        0.06939373165369034,
        -0.3445182144641876,
        0.28282424807548523,
        -0.1672605723142624,
        0.16746947169303894,
        0.12962855398654938,
        -0.05707424879074097,
        -0.2229154109954834
      ],
      [
        0.11256154626607895,
        -0.3958715498447418,
        -0.09462433308362961,
        -0.0218746867030859,
        -0.20431001484394073,
        0.14130526781082153,
        0.09330999851226807,
        -0.4448833763599396,
        -0.4432421922683716,
        0.16481530666351318,
        0.29799818992614746,
        -0.43543222546577454,
        0.19656328856945038,
        -0.27193737030029297,
        -0.1435600370168686,
        -0.05949193984270096,
        0.25279107689857483,
        0.36086592078208923,
        0.2881598174571991,
        -0.10862678289413452,
        -0.26548272371292114,
        -0.41416099667549133,
        0.08253665268421173,
        -0.05071095749735832,
        -0.35579991340637207,
        0.09717210382223129,
        0.24177707731723785,
        0.1041869968175888,
        0.2036210149526596,
        -0.3067449927330017,
        0.13623085618019104,
        -0.21857725083827972
      ],
      [
        -0.09759829938411713,
        0.14076653122901917,
        0.07666525989770889,
        0.3691389858722687,
        0.2969425618648529,
        -0.2596839368343353,
        0.1646335870027542,
        -0.26536667346954346,
        -0.1531892567873001,
        0.3342195451259613,
        0.23439940810203552,
        -0.2753649055957794,
        0.10213698446750641,
        0.31447678804397583,
        0.2539524734020233,
        -0.3601178824901581,
        0.14446818828582764,
        -0.25142860412597656,
        -0.22634804248809814,
        0.23149028420448303,
        -0.13483716547489166,
        0.00542923528701067,
        0.4298242926597595,
        0.07559758424758911,
        -0.004838572349399328,
        0.3123953938484192,
        0.01143665611743927,
        0.2580798268318176,
        -0.35276731848716736,
        -0.2282170206308365,
        -0.058439068496227264,
        -0.30038294196128845
      ],
      [
        -0.08205354958772659,
        0.3474866449832916,
        -0.2888602614402771,
        -0.25011157989501953,
        -0.23621323704719543,
        -0.19787579774856567,
        0.11068013310432434,
        0.23820088803768158,
        0.41621172428131104,
        -0.0322171151638031,
        0.2691253125667572,
        0.08224373310804367,
        -0.021440569311380386,
        0.3015395402908325,
        -0.13366134464740753,
        0.1971963793039322,
        -0.27937936782836914,
        0.047184571623802185,
        -0.11246968805789948,
        -0.15395775437355042,
        -0.0563540905714035,
        -0.34639906883239746,
        -0.2814558744430542,
        -0.02597540058195591,
        -0.04083302617073059,
        0.015668226405978203,
        -0.19494862854480743,
        -0.23314547538757324,
        0.20720124244689941,
        -0.0971909910440445,
        -0.057616278529167175,
        -0.28194624185562134
      ],
      [
        0.050816040486097336,
        0.3857616186141968,
        0.20681749284267426,
        -0.27315428853034973,
        0.34917446970939636,
        0.036435313522815704,
        -0.1300860047340393,
        0.005228468216955662,
        -0.10759453475475311,
        0.017957042902708054,
        -0.11538276821374893,
        0.3404518663883209,
        0.18660831451416016,
        0.19028186798095703,
        0.08301687985658646,
        -0.2608593702316284,
        -0.09455780684947968,
        0.18345674872398376,
        0.17711788415908813,
        0.059150926768779755,
        -0.08445379883050919,
        -0.24867238104343414,
        0.279242604970932,
        -0.26746705174446106,
        -0.2245749831199646,
        0.31894639134407043,
        -0.21843644976615906,
        -0.2658613324165344,
        -0.14096109569072723,
        0.4357980489730835,
        -0.07429474592208862,
        0.15251272916793823
      ],
      [
        0.3837125599384308,
        -0.09987279027700424,
        0.034517448395490646,
        0.05034468322992325,
        0.1822194755077362,
        -0.2767731249332428,
        0.11970267444849014,
        0.04727483540773392,
        -0.10984467715024948,
        0.09124302119016647,
        0.410280704498291,
        0.2596455514431,
        0.013361230492591858,
        0.16968092322349548,
        0.22364260256290436,
        0.26896873116493225,
        -0.330972284078598,
        -0.12723584473133087,
        -0.02415025606751442,
        -0.041978102177381516,
        0.3523644208908081,
        -0.3047586977481842,
        0.11755470931529999,
        -0.10415147244930267,
        0.31080344319343567,
        -0.2960858941078186,
        -0.10925482958555222,
        0.025096014142036438,
        -0.1780405342578888,
        -0.09811557084321976,
        0.30250003933906555,
        -0.10803442448377609
      ],
      [
        -0.21245622634887695,
        0.23687240481376648,
        -0.18985441327095032,
        -0.2572617828845978,
        0.3399342894554138,
        0.2776220738887787,
        0.22803235054016113,
        -0.020919451490044594,
        -0.12534670531749725,
        0.1426289677619934,
        -0.04748844727873802,
        0.12035511434078217,
        0.22119620442390442,
        -0.35262754559516907,
        0.15164941549301147,
        0.3047143816947937,
        -0.329963356256485,
        -0.24093659222126007,
        -0.3107125163078308,
        0.08935438096523285,
        0.22112709283828735,
        -0.030437197536230087,
        -0.31538620591163635,
        -0.038930829614400864,
        -0.34159138798713684,
        0.3514328598976135,
        -0.267996221780777,
        -0.23101012408733368,
        0.31665223836898804,
        -0.2861053943634033,
        0.4065464735031128,
        -0.19804413616657257
      ],
      [
        -0.31278765201568604,
        0.13277758657932281,
        0.1613423377275467,
        0.24906067550182343,
        -0.35756736993789673,
        -0.15757226943969727,
        0.1585359126329422,
        0.09140703827142715,
        0.2933019697666168,
        -0.1835092306137085,
        0.31662294268608093,
        0.16467539966106415,
        0.008498646318912506,
        0.13067607581615448,
        -0.45106565952301025,
        -0.221202090382576,
        0.07643203437328339,
        -0.19234944880008698,
        -0.09385928511619568,
        -0.02894642949104309,
        0.09268650412559509,
        0.08192668110132217,
        0.12452109903097153,
        0.129161536693573,
        -0.19275276362895966,
        -0.2137364149093628,
        0.22169648110866547,
        -0.29691097140312195,
        -0.32733842730522156,
        0.16378292441368103,
        0.23233482241630554,
        -0.39540988206863403
      ],
      [
        0.17269718647003174,
        0.07272220402956009,
        -0.2896893322467804,
        -0.03710523992776871,
        -0.34609779715538025,
        -0.10861262679100037,
        0.19581837952136993,
        0.003356821835041046,
        -0.2148507982492447,
        0.1502210944890976,
        -0.23715859651565552,
        0.1878499835729599,
        0.2678545415401459,
        0.36607825756073,
        -0.298656165599823,
        0.3796204924583435,
        -0.01603502407670021,
        0.2535574436187744,
        -0.028566226363182068,
        0.11247587203979492,
        -0.26059043407440186,
        0.1878783255815506,
        -0.1273742914199829,
        0.2577681243419647,
        0.32624006271362305,
        -0.23105692863464355,
        -0.06658073514699936,
        -0.018060289323329926,
        0.29533737897872925,
        -0.17567503452301025,
        -0.09951180964708328,
        -7.617543451488018e-05
      ]
    ],
    "bias": [
      0.08168961107730865,
      0.08811357617378235,
      0.03592433035373688,
      -0.07010604441165924,
      0.0845172107219696,
      -0.08297736942768097,
      -0.06230093911290169,
      0.08287661522626877,
      0.08707235753536224,
      0.086887888610363,
      0.016806166619062424,
      0.08700551092624664,
      0.08672580122947693,
      -0.06387574970722198,
      0.07403074204921722,
      0.08749308437108994,
      -0.05160975456237793,
      0.022209269925951958,
      -0.06716670840978622,
      -0.05080435797572136,
      -0.08532658219337463,
      0.025122027844190598,
      -0.07587552815675735,
      0.0018685631221160293,
      0.021626580506563187,
      -0.004225768614560366,
      -0.05373947322368622,
      -0.06575397402048111,
      -0.014543167315423489,
      0.08709564059972763,
      0.024032557383179665,
      -0.05947548896074295
    ]
  },
  "dense_1": {
    "weights": [
      [
        0.00195412989705801,
        0.2822941839694977,
        -0.17506416141986847,
        -0.049989376217126846,
        0.16708891093730927,
        0.3438081443309784,
        0.36240166425704956,
        -0.29481619596481323,
        -0.36177822947502136,
        0.036875151097774506,
        -0.19788017868995667,
        -0.15039902925491333,
        0.038357190787792206,
        -0.03757147118449211,
        0.4177970588207245,
        0.009188574738800526
      ],
      [
        -0.27188071608543396,
        0.1935795098543167,
        0.011045625433325768,
        0.1464805006980896,
        0.06964004784822464,
        0.36360785365104675,
        0.16267409920692444,
        -0.2277086228132248,
        -0.384101927280426,
        -0.028024179860949516,
        0.4104180335998535,
        0.15734601020812988,
        -0.1597774177789688,
        0.030666900798678398,
        0.254883348941803,
        0.3312074542045593
      ],
      [
        -0.32485076785087585,
        -0.015220506116747856,
        -0.3495372235774994,
        0.011854713782668114,
        0.02584649994969368,
        -0.031295496970415115,
        -0.2570701837539673,
        -0.08545112609863281,
        -0.32898327708244324,
        -0.03114572912454605,
        0.07006654143333435,
        -0.3494935929775238,
        0.14158858358860016,
        -0.2756780982017517,
        -0.19760188460350037,
        0.04031173512339592
      ],
      [
        0.011910079047083855,
        0.017302900552749634,
        -0.3840652406215668,
        0.3026057183742523,
        0.08503632992506027,
        -0.07324784249067307,
        -0.23556865751743317,
        0.27008000016212463,
        0.1290227621793747,
        0.2807460427284241,
        -0.10974616557359695,
        -0.21556439995765686,
        0.0018174969591200352,
        0.29613006114959717,
        -0.27034273743629456,
        -0.08765307813882828
      ],
      [
        0.14387908577919006,
        0.21893459558486938,
        0.005140483379364014,
        0.4155946969985962,
        0.36350786685943604,
        -0.05394142493605614,
        0.41738104820251465,
        -0.27248069643974304,
        -0.07834316045045853,
        -0.36275485157966614,
        -0.192448690533638,
        0.23305879533290863,
        0.41704434156417847,
        0.21290887892246246,
        0.11032888293266296,
        0.4076906442642212
      ],
      [
        -0.13276566565036774,
        0.09576639533042908,
        -0.11039464175701141,
        -0.10552085191011429,
        -0.1646982729434967,
        0.07168310880661011,
        -0.12306827306747437,
        0.12023232877254486,
        0.14346051216125488,
        -0.1442371904850006,
        0.1252410113811493,
        -0.33101344108581543,
        -0.04846443235874176,
        -0.154474675655365,
        -0.09377489238977432,
        0.02228747494518757
      ],
      [
        -0.1523442417383194,
        0.1443350464105606,
        -0.21336856484413147,
        -0.12182478606700897,
        0.1803138554096222,
        0.16270513832569122,
        -0.21826331317424774,
        -0.292197585105896,
        -0.2460830956697464,
        -0.10331205278635025,
        -0.2343650460243225,
        -0.2696584463119507,
        -0.13777980208396912,
        0.18458296358585358,
        0.009748373180627823,
        -0.15768307447433472
      ],
      [
        0.22876958549022675,
        -0.009028563275933266,
        -0.3154207170009613,
        0.23256869614124298,
        -0.24893710017204285,
        -0.03152991831302643,
        0.18251356482505798,
        0.11979037523269653,
        -0.3582945466041565,
        -0.08881944417953491,
        0.21736818552017212,
        -0.3672686517238617,
        0.12706294655799866,
        0.19726015627384186,
        0.3371211290359497,
        -0.1676231324672699
      ],
      [
        -0.2870001792907715,
        -0.20062080025672913,
        0.01681828498840332,
        0.22918002307415009,
        0.23504936695098877,
        -0.10777295380830765,
        0.16674883663654327,
        0.2168457806110382,
        -0.22009602189064026,
        -0.27642396092414856,
        0.18900100886821747,
        -0.26378321647644043,
        0.10939782857894897,
        -0.0682307705283165,
        0.31690487265586853,
        0.3163624703884125
      ],
      [
        0.22969259321689606,
        -0.3246580958366394,
        -0.371036171913147,
        0.3669482171535492,
        0.3726445734500885,
        -0.18563401699066162,
        0.18095065653324127,
        0.2205425351858139,
        -0.19137616455554962,
        -0.2997470796108246,
        -0.14158374071121216,
        -0.1436183750629425,
        0.4043726623058319,
        0.1808556765317917,
        0.24492675065994263,
        0.38381150364875793
      ],
      [
        -0.15807273983955383,
        0.013125765137374401,
        0.2545652985572815,
        0.25663450360298157,
        0.20414340496063232,
        -0.28673675656318665,
        0.22299984097480774,
        0.22010619938373566,
        -0.096157968044281,
        0.17089511454105377,
        -0.015173560008406639,
        -0.37977737188339233,
        0.2458730787038803,
        0.23754775524139404,
        -0.008419736288487911,
        0.009313197806477547
      ],
      [
        -0.25580424070358276,
        -0.2093966007232666,
        0.12993615865707397,
        0.4340384602546692,
        -0.04574286937713623,
        0.053042251616716385,
        0.16602207720279694,
        -0.06454816460609436,
        0.28038525581359863,
        -0.14550672471523285,
        -0.16959501802921295,
        -0.28118976950645447,
        0.27275213599205017,
        0.10398787260055542,
        0.148435577750206,
        0.27767297625541687
      ],
      [
        -0.1858438402414322,
        -0.2426598072052002,
        -0.03008127026259899,
        0.11481636762619019,
        0.35485389828681946,
        0.26370176672935486,
        -0.29716312885284424,
        0.31948187947273254,
        -0.05308600515127182,
        -0.18430845439434052,
        0.1688585728406906,
        0.25283798575401306,
        0.07923490554094315,
        0.10357518494129181,
        0.4037044644355774,
        -0.10641947388648987
      ],
      [
        0.13377779722213745,
        -0.13197846710681915,
        0.2297252118587494,
        -0.1360134780406952,
        0.14321956038475037,
        0.2019822895526886,
        -0.2847059667110443,
        -0.36397820711135864,
        0.143592968583107,
        -0.369533896446228,
        -0.15087150037288666,
        -0.07141471654176712,
        -0.14987346529960632,
        -0.22656577825546265,
        0.301967978477478,
        -0.030772384256124496
      ],
      [
        -0.3394659459590912,
        -0.009885239414870739,
        -0.1121983677148819,
        0.2388688176870346,
        -0.22286394238471985,
        -0.019675608724355698,
        -0.1519671529531479,
        -0.10151991248130798,
        -0.37680289149284363,
        -0.2953965365886688,
        -0.15494543313980103,
        -0.2635045349597931,
        0.2073056697845459,
        0.17661483585834503,
        0.2812282145023346,
        0.012401090934872627
      ],
      [
        -0.3245793879032135,
        0.10233448445796967,
        -0.17430756986141205,
        -0.05661845952272415,
        0.28303927183151245,
        0.026613321155309677,
        -0.1380835622549057,
        0.21314823627471924,
        -0.2830311954021454,
        0.25556111335754395,
        0.3815394341945648,
        -0.06437092274427414,
        -0.1761481612920761,
        0.050531722605228424,
        0.42841631174087524,
        0.3944900631904602
      ],
      [
        -0.08345651626586914,
        0.05994546413421631,
        -0.31241312623023987,
        -0.2818678319454193,
        -0.008402368053793907,
        0.07856062799692154,
        -0.192897230386734,
        0.16754081845283508,
        -0.05692857503890991,
        -0.011625101789832115,
        0.16804823279380798,
        0.09518828243017197,
        -0.16658945381641388,
        0.09151627123355865,
        0.27381062507629395,
        0.048262160271406174
      ],
      [
        0.03957241028547287,
        -0.07723279297351837,
        -0.12442659586668015,
        -0.2706819176673889,
        0.32108891010284424,
        0.3330702483654022,
        -0.20406116545200348,
        -0.17652568221092224,
        -0.38567253947257996,
        0.15888679027557373,
        0.08770202845335007,
        0.08830162137746811,
        -0.1101977676153183,
        -0.05309922248125076,
        0.11737752705812454,
        -0.10231511294841766
      ],
      [
        0.09565305709838867,
        0.13701115548610687,
        -0.16352969408035278,
        -0.07073758542537689,
        -0.2583487927913666,
        0.059345442801713943,
        -0.26332634687423706,
        0.05497337505221367,
        0.148540198802948,
        0.09511809051036835,
        0.15575838088989258,
        0.29761093854904175,
        0.18713083863258362,
        -0.1380823850631714,
        0.3708174228668213,
        -0.21290552616119385
      ],
      [
        0.1829119324684143,
        -0.0029545766301453114,
        0.0017860874067991972,
        0.21030910313129425,
        0.05760746821761131,
        0.23179493844509125,
        -0.1943332552909851,
        0.161406472325325,
        0.2624646723270416,
        0.004688936285674572,
        -0.10533525049686432,
        -0.1564996838569641,
        0.12088795006275177,
        0.13285212218761444,
        -0.18033427000045776,
        0.2621475160121918
      ],
      [
        0.02707751654088497,
        0.22594350576400757,
        0.16221748292446136,
        -0.16540522873401642,
        0.02940206043422222,
        -0.13511598110198975,
        -0.19900701940059662,
        -0.22676385939121246,
        0.2069011628627777,
        0.11879570037126541,
        0.13169309496879578,
        0.2639821469783783,
        -0.2581038475036621,
        0.015105401165783405,
        -0.23628591001033783,
        0.11104006320238113
      ],
      [
        0.20696121454238892,
        -0.2753785252571106,
        -0.19208286702632904,
        0.11134970188140869,
        -0.19559210538864136,
        -0.0758785530924797,
        -0.16850441694259644,
        -0.030815038830041885,
        -0.3480381667613983,
        -0.15658694505691528,
        0.39147064089775085,
        0.04628001153469086,
        -0.04192632436752319,
        -0.1330917924642563,
        -0.10615330934524536,
        -0.1614515334367752
      ],
      [
        0.16841600835323334,
        0.25648579001426697,
        -0.367990642786026,
        -0.11621072888374329,
        0.16691850125789642,
        -0.18833059072494507,
        -0.17851375043392181,
        0.09199783205986023,
        0.024363067001104355,
        0.14383085072040558,
        0.388555645942688,
        -0.25386515259742737,
        -0.18273985385894775,
        -0.26592177152633667,
        -0.026929758489131927,
        -0.1403428316116333
      ],
      [
        -0.27963221073150635,
        0.21946462988853455,
        0.29316452145576477,
        -0.3400963544845581,
        -0.0561482310295105,
        0.41764119267463684,
        -0.1198430210351944,
        0.3776843845844269,
        0.31726738810539246,
        0.01808885484933853,
        -0.013855972327291965,
        0.06907600164413452,
        0.17283275723457336,
        0.1435909867286682,
        -0.0517609640955925,
        -0.3135300874710083
      ],
      [
        -0.22992993891239166,
        -0.28557029366493225,
        -0.1406395137310028,
        -0.20596274733543396,
        0.18867994844913483,
        0.2985924780368805,
        -0.2705591022968292,
        -0.21103106439113617,
        -0.05485500767827034,
        -0.13890044391155243,
        -0.14794541895389557,
        0.22608651220798492,
        -0.30390027165412903,
        0.006304741837084293,
        -0.12942974269390106,
        -0.06277391314506531
      ],
      [
        0.26566213369369507,
        0.12450229376554489,
        -0.22622068226337433,
        0.39581188559532166,
        -0.07712099701166153,
        0.1374446004629135,
        -0.0991716980934143,
        -0.2859361469745636,
        0.04909452423453331,
        0.2899090051651001,
        -0.03497372940182686,
        0.006877335254102945,
        0.32810840010643005,
        -0.4246003329753876,
        0.11048536747694016,
        0.0007896088063716888
      ],
      [
        -0.12736381590366364,
        0.2898109257221222,
        -0.025697840377688408,
        -0.11810002475976944,
        -0.09422296285629272,
        0.07308569550514221,
        -0.08061406016349792,
        -0.10748269408941269,
        -0.04561975225806236,
        0.09021348506212234,
        -0.29888784885406494,
        -0.07439914345741272,
        -0.30071842670440674,
        -0.31896451115608215,
        0.22487996518611908,
        -0.23651385307312012
      ],
      [
        -0.26316240429878235,
        -0.05778328329324722,
        0.29243209958076477,
        -0.26876500248908997,
        -0.22389785945415497,
        0.13999801874160767,
        -0.09916127473115921,
        -0.048284467309713364,
        -0.09772173315286636,
        0.20621415972709656,
        -0.33465608954429626,
        0.16973060369491577,
        0.003643639152869582,
        -0.38793501257896423,
        -0.24216672778129578,
        -0.04789251461625099
      ],
      [
        0.24171845614910126,
        0.08519452810287476,
        -0.3419393301010132,
        0.009141437709331512,
        0.42333605885505676,
        0.11335885524749756,
        0.28248485922813416,
        -0.1739799529314041,
        0.13258996605873108,
        0.2763897776603699,
        -0.057382646948099136,
        -0.29142263531684875,
        0.22552289068698883,
        -0.2631392478942871,
        0.2636847198009491,
        -0.08772584050893784
      ],
      [
        0.20289942622184753,
        -0.2694525420665741,
        0.14457465708255768,
        0.320646196603775,
        0.2161196619272232,
        0.4211294651031494,
        -0.14917688071727753,
        -0.3402158319950104,
        -0.028370114043354988,
        0.15156032145023346,
        0.15133580565452576,
        0.26249170303344727,
        0.42332586646080017,
        -0.23458079993724823,
        0.1486336886882782,
        0.08282836526632309
      ],
      [
        0.2705855369567871,
        0.12635764479637146,
        -0.04711279645562172,
        0.06770061701536179,
        0.11014100909233093,
        -0.0016340138390660286,
        0.14825844764709473,
        -0.11412650346755981,
        -0.35714998841285706,
        -0.26649168133735657,
        -0.2655137777328491,
        0.27101537585258484,
        0.3325212299823761,
        -0.17305533587932587,
        0.13681432604789734,
        0.13617824018001556
      ],
      [
        -0.15508440136909485,
        0.19633950293064117,
        -0.011677682399749756,
        0.33245885372161865,
        -0.15759243071079254,
        0.1730422079563141,
        0.3510686159133911,
        0.025280028581619263,
        0.282943993806839,
        -0.31762686371803284,
        -0.2245558649301529,
        -0.3232564926147461,
        -0.20692533254623413,
        -0.056968141347169876,
        0.11068877577781677,
        0.020478885620832443
      ]
    ],
    "bias": [
      -0.07567588984966278,
      -0.0802258551120758,
      -0.0752321109175682,
      0.08907274901866913,
      0.08336625248193741,
      0.08944302052259445,
      0.06461494415998459,
      0.05155080556869507,
      -0.0655641257762909,
      -0.05692635849118233,
      0.0879441350698471,
      -0.07263150066137314,
      0.08755040168762207,
      -0.07676252722740173,
      0.08976846188306808,
      0.08496341109275818
    ]
  },
  "dense_2": {
    "weights": [
      [
        -0.27670642733573914
      ],
      [
        -0.43166863918304443
      ],
      [
        -0.3753582537174225
      ],
      [
        0.5533585548400879
      ],
      [
        0.3994169235229492
      ],
      [
        0.4446723461151123
      ],
      [
        0.36243757605552673
      ],
      [
        0.37837499380111694
      ],
      [
        -0.40882790088653564
      ],
      [
        -0.45881205797195435
      ],
      [
        0.5081465840339661
      ],
      [
        0.027731820940971375
      ],
      [
        0.432608425617218
      ],
      [
        -0.13805432617664337
      ],
      [
        0.437054842710495
      ],
      [
        0.39739570021629333
      ]
    ],
    "bias": [
      0.08943582326173782
    ]
  }
}